solver_type L2R_L2LOSS_SVC_DUAL
nr_class 12
label 1 2 3 4 5 6 7 8 9 10 11 12
nr_feature 202
bias -1
w
1.05427384731174e-06 7.436322159711307e-06 -0.0008350868158130723 1.080216133810431e-05 2.701294753015816e-05 -8.958840696887564e-06 -2.794235262045542e-05 -4.211846803940967e-05 4.302630224344711e-05 -0.0003109049462155094 -1.139097014162888e-05 -2.521355229520221e-05 
-1.819303804966305e-06 -9.716608379980676e-06 -0.0004040723141822986 -3.54467349134256e-06 1.002207996774831e-05 -5.427557955703482e-06 1.100978658379957e-06 -5.54610948599047e-06 9.287386961808294e-06 7.230418970649257e-05 -9.726273004974421e-06 -1.752469906513515e-05 
0 0 0 0 0 0 0 0 0 0 0 0 
0 0 0 0 0 0 0 0 0 0 0 0 
0 0 0 0 0 0 0 0 0 0 0 0 
-2.794906112777438e-06 -2.069813234761484e-05 -0.0005951228031171126 -7.944494182930702e-06 8.572463208647929e-06 -7.372796678569601e-06 -8.181050453926959e-06 -2.272410327369039e-05 1.028108608684178e-05 -6.82936725424069e-05 -1.100180248361665e-05 -1.790237333630508e-05 
0 0 0 0 0 0 0 0 0 0 0 0 
0 0 0 0 0 0 0 0 0 0 0 0 
0 0 0 0 0 0 0 0 0 0 0 0 
1.687670715134441e-07 -2.662509373295988e-06 -0.00011245788955393 -4.644746556039106e-06 7.122793965436198e-07 -1.003517631383312e-06 -5.90261991288367e-06 -1.199135094753999e-05 4.41735702574815e-06 -0.00012767016420173 -6.367030599271886e-07 1.014482598059534e-05 
0 0 0 0 0 0 0 0 0 0 0 0 
0 0 0 0 0 0 0 0 0 0 0 0 
0.04882210600269526 0.00894058089896416 0.04191474846568814 0.0007125607469289762 0.005676815743673303 0.01288812151070319 0.03488839833823949 -0.001562427688914318 0.004711910824791993 -0.03625143801619727 0.01105616347631373 0.03588364488986692 
0.01696771387575584 0.01941894176245635 0.003523521515511802 0.004415164173370204 0.01318339355389084 0.004328964079143439 -0.01254056717179694 0.002639283786643131 -0.01096722805502684 0.06582257890406143 0.01529216397927566 -0.01376318029570068 
0.03185442393589071 -0.0104785423520936 0.03839161159837257 -0.003702638476665359 -0.007506659625748291 0.008559150158163208 0.04742897752625447 -0.004201702586706305 0.01567923757373062 -0.1020741740050785 -0.004235973831776975 0.04964669201501185 
0.003791738600652691 -0.00204094091568302 -0.002080127406139997 0.0002362188542036547 0.0005687971448047401 0.001566350569853824 -0.0004749965152092321 -0.000466176876369196 0.0001797617014440737 0.005446757718168034 0.0004660380344405507 0.002720001023632998 
0.001318947259818444 -0.001419825597071974 -0.0007059094308454669 -0.0001527797702590007 -0.001152642242590079 -0.02243617066238332 -0.002010053944608495 0.0001009894647518634 -0.0007905425059128627 0.001816830302086294 -0.0002062117991286423 0.002376155284560221 
0.0405869968483706 0.008135304005602759 -0.06783750855898203 0.003314376394676984 0.01487866395181728 0.01301877918741768 0.04266429553416026 0.01430614678529632 0.009188910170191328 -0.03548380625270362 0.01272361843839607 0.01099097441620767 
-0.0005876242320416679 -0.0008093270401112055 0.01554808801539177 0.002126939461223043 -0.0008695600365147893 -3.556335561321049e-05 0.0002400852188546454 2.458606305916522e-07 -0.003385093226444941 0.01079854028845762 -0.0005545814378631461 0.0001288503808059665 
0.02215058824183446 0.06210656331832939 -0.02311229779663464 0.01815549103148876 -0.02093701950516192 0.01208000976799785 0.03970091185908996 0.01277231227156095 0.01884682341436544 -0.08630648692387663 0.01471058785191015 0.02584649152951748 
0.1014209030657755 -0.01339685465908641 -0.05461644187718023 -0.002226886611479773 -0.0373463425458894 0.005358609453561362 -0.01696029203656733 -0.003980134732569868 0.01801716654250271 -0.1126650590854228 0.001600232964661322 0.01388006240277635 
0.02009851419625214 -0.006686607679488062 -0.03059834721860819 -0.006608468452200123 -0.005227435709544959 0.001044683257403383 0.02120377839162894 -0.003612471763051736 -0.0004548625199095484 -0.02536370707659457 -0.001935001640469238 0.004728719955334767 
0.005937570260691985 0.009299894625241525 -0.003293953014636518 0.00581267115655775 0.005010055845853184 -0.003410469786626018 -0.02281137098624443 -0.003020343466903143 -0.003089677912830094 0.02179456416439151 0.0001596931833552814 0.01175384568106056 
-0.02982354479086497 -0.01309832138548669 0.002304510315838162 -0.009418249636567594 -0.04027173859473321 0.002303318344927661 -0.02073289321389858 -0.01475347788554955 0.002336989065130625 -0.03424334517980736 -0.0004244269364603134 0.006343299966905183 
0.001559629922848489 -0.01867000827244322 -0.001018607051020217 -0.01844500718164403 -0.002873185236084654 0.002757763197935132 -0.01650753410891917 -0.0006185507942109127 0.02263996696037986 -0.004553681326967315 -0.0005555535371156787 -0.02553614049131419 
0.05501878180364125 -0.01781090457530453 -0.03414779494833265 -0.000980737055158334 0.01057717007863486 0.01322618771274488 -0.0264166013862705 0.007133293372335164 0.02162826470119517 -0.05759989519947095 0.01838351505085396 0.009127101374062016 
-0.05345913375714504 -0.0008590805563595766 0.03312919094627138 -0.01746426427546253 -0.01345044315644325 -0.01046842656295762 0.009908832319755048 -0.007751816461500992 0.001011655931103895 0.05304628154262728 -0.01893906812674595 -0.0346632027040691 
-0.005499513294770633 -0.0006822361352089176 -0.001186160295886902 -0.0002247299855501377 0.0002592206396729895 -0.01023765730073711 0.0008331467095433901 0.0005466543025787504 0.0001706692875613304 -0.01429609287367863 -0.01587454751882274 0.005003580277225504 
-0.009920130011341554 0.0006033430762816601 0.0004595235012422768 0.0001210354505560706 0.002249433554232147 -0.003348072753730988 -0.0008046170627241059 -0.001139198842516999 -5.150861906396517e-05 0.002808114660412503 0.003870156844998355 -0.003556839112327315 
0.038018228250898 -0.0008034159852018359 0.09798234971550816 0.01885205703202891 0.007561821102741947 0.01360934385516362 -0.01776117545254319 0.008429642879055337 0.04846615864367791 -0.0154296057951278 0.0112538347424032 0.04357805342780418 
0.0008942183026881634 0.004936793102849582 -0.008274429609601952 0.001855662998455182 0.002900465067149437 0.001236936981018011 0.008754706324104139 0.0009886177942617206 0.006185328347412305 -0.01407525804226165 0.0003699190934607983 0.0126593228933598 
0.07385140663697697 -0.004467377104065339 -0.05913587030227682 -0.02629575799936587 -0.02989019922800725 0.003934020672071321 -0.02482635102274452 -0.01623048062301434 0.01298883729043087 -0.01842141446154659 0.009935086186030588 0.003114073963387668 
0.0139660828933024 -0.0206683228151845 -0.03135135884380344 -0.006928183289624716 -0.03242218669622616 -0.01531187951001775 -0.03869637211920755 0.00305240842234502 0.0028121165951168 0.05695128406439113 -0.01361570314803099 0.01913487102555558 
-0.002205859093475751 -0.01149156966543345 -0.03429941775214775 -0.01420166073026981 -0.01075541925140023 -0.005602676689011282 -0.008526629006288377 0.0007385527016250077 0.006548160707285907 0.004767013429986583 -0.006934995325218613 -0.01726741321000681 
-0.009407374825708591 -0.01937626817355984 -0.03943384454376564 -0.006431821452001748 -0.006909222282742458 -0.00295119295665754 0.001853786790204864 -0.002286203277124599 -0.02706171256236134 0.04120979291570779 0.0009750784928610048 -0.01221591128374074 
-0.05326456393404932 -0.01121083331253831 -0.02203471933038973 -0.02726041305473067 -0.03526533476467918 0.0008377990270403953 -0.0367569945985265 -0.01831898188674446 -0.008259448416419055 -0.01027871968140834 -0.002510895806807835 -0.0004787755526354146 
-0.008239057917603125 0.002365613861321858 0.08181804687718904 -0.001314907602706909 -0.01964567024702114 0.008372181421834612 -0.01881927294806615 0.004109383127111998 0.007271372144096983 -0.01032620618141692 -0.005817277403344066 -0.02259155593491934 
-0.01985386443814372 -0.03221317496205278 0.06722448569942883 0.006324392651895397 -0.01427482569210486 0.002276036818140969 -0.03049746201992482 0.00436071516305731 0.01120326299073634 0.01471028920686875 0.006057315837817712 0.01882281130829909 
0.01161481843789679 0.03457859659763202 0.01459392982078923 -0.007639360687327217 -0.005370927762605488 0.006096147964638108 0.01167813241606426 -0.0002513312587516895 -0.003931918418389174 -0.0250365157642002 -0.0118745942912925 -0.04141439243058213 
-0.003628708502463104 0.003468190384880109 0.0004888218857429438 -0.0003329672488678135 0.001206129140074967 0.008830943760501841 -0.00105682967049007 -4.580181620472732e-05 -9.835531246190878e-05 0.005159681385194593 -0.009381057223404134 -0.003307127087713898 
-0.008339239708364735 0.001076201795230502 -0.0004626055370890964 -0.0002849578341366766 -0.001275215463512615 0.0009768826039109895 0.001309146505797343 -0.0001735306235804431 0.0003010856693035687 -0.004372516431903223 0.002440888589242172 0.003619641950201393 
0.02753969621426178 0.0635944303750542 0.01628563877016508 0.004655743074179457 0.01530879994910858 0.009663999737035201 -0.02313736184022262 -0.0005007487980376635 0.01368062609722964 -0.03289926543475243 -9.972962004689674e-05 -0.0086992895399503 
0.004978370808245512 0.0024591546441265 -0.02344559786966449 -0.002948328399114701 0.004168615588097235 0.000942450835312501 0.001598944371671363 0.00070380459958024 0.005920375376954397 -0.01474900203089193 0.0006585369188690678 0.003270615454962357 
0.03488994008889876 -0.00759627461214405 -0.04582399395752295 -0.01587983406995114 -0.01435786777155002 0.0003646801694297444 0.04940487734172888 -0.01702467628206944 -0.000262462198110213 -0.001147340555441824 0.003297388001598718 0.005348041529964247 
0.1055029100415036 -0.001074656821299205 0.01848776527456861 0.02944035462039242 0.02853690013608899 0.00329213231671009 0.02261737404372098 0.01802079622211201 -0.01990365736167979 0.01055379218541165 -0.0003035490666265756 -0.008582219243472954 
0.01785024435866757 0.009860712828954187 -0.07468687948712445 0.0003456745796125957 -0.00738458474711869 -0.000809073617300523 -0.002926870804775227 -0.0007105547937390818 -0.001890194602634937 -0.001147719616149758 -0.003925631928654067 -0.02878797160623783 
-0.02408699295503574 -0.02498608242930905 0.06090841242479457 -0.002680662761606888 -0.008697246942791514 -0.001474820333569536 0.001291157964882873 0.0003115180031258352 -0.00745624539641661 0.03528732002016611 0.0004379140940884335 0.005480054302077831 
-0.00400356547201943 -0.03401798664891791 -0.03348706966911097 -0.02062443622356116 -0.007380193268962667 0.0001876133749865717 -0.03521859418226388 -0.009190546209615916 0.01575676192742241 -0.07216922107226016 -0.001480624997506526 0.00274524920041969 
-0.02314319489393119 -0.0004974704990865309 -0.03246318587413495 0.01539209853954997 -0.0191930033813663 -8.563333811360199e-05 0.01459836404137998 0.005018952995626063 0.008871735909298057 -0.02370116689220673 -0.01163757033530099 0.03859026995596455 
-0.01742821732256793 0.0001711795969964369 -0.02257646443719713 0.01254076404155619 -0.02924460957988883 -0.001165322785426791 0.01710154417783666 -0.003852517374498768 -0.003259094478718113 -0.03730283135860828 -0.01398460676150048 0.0175453004791716 
-0.005714901713202492 -0.0006686236761237477 -0.009886900860760925 0.002851371103859167 0.01005154927309115 0.001079682821336959 -0.002503266331949486 0.008871455496383596 0.01213089523193628 0.01360150956714713 0.002347035988833342 0.02104495127783979 
-0.0185085162931578 0.001966729861998121 0.0001647985906647546 -0.0004087528493318685 7.041503878461304e-05 -0.001146503499877386 -0.003500999833409595 -0.001631884437335734 -0.0005955220098309922 -0.002028489740241161 0.002409647640768661 -0.0006136545336915537 
-0.01432022603324244 -0.001784936375159492 -6.688839446893522e-05 0.001338879666001665 -8.032624720187926e-05 -0.006143895623306403 -0.0009511899312946885 -0.002507116242042016 7.649105657042655e-05 -0.007168167244939791 -0.005639840731754495 -0.005365878435605223 
0.003771319091311714 0.01637275582182789 -0.002654757311082581 -0.03487435259258969 -0.01270542373203099 0.001092766865686474 -0.025860049528262 0.004027114608247347 -0.01691636954207974 -0.01502518275815173 -0.01110814174313018 0.002011097270728316 
0.007680433243758821 0.0004063987645292022 0.002156061870704001 -0.005136504393663235 -0.0002883396234286777 0.0009196615797022486 -0.001171209610059629 0.0002763595608218039 -0.0008514636596843774 -0.01197068688220533 0.0006023577921331148 0.003556000976087324 
-0.04815106233184323 -0.02238270428821169 0.05959784357121915 -0.03030436997131345 0.04364619462363988 -0.01027526720334985 -0.004768791014238204 0.0009868267193541996 -0.009817436515242361 0.03639355900378552 -0.01129563588748485 0.006326753278977934 
0.004949158765479831 -0.0350268287962661 -0.005408972004957227 0.01075240380038389 0.02690582542970458 0.006107237120885159 -0.04076186778729369 0.01343670411589812 -0.009921238581510708 -0.0002253406818318003 0.01044854916549726 -0.02021029944219447 
-0.009783282302875585 -0.008000087522688385 -0.07969921632448185 -0.009480780884394581 -0.0003023035222166638 -0.001157657110706602 -0.01621766901887393 -0.005624431578527893 0.00507909894363242 -0.00678806089713295 0.0007843936662546121 -0.002513803831089035 
-0.03029619839827521 -0.0009594971506171361 -0.02488226999486296 0.0132444147998137 -0.009517280236824504 -0.0003989715845635876 0.01617636443844688 0.0003420554607516102 0.01106015851481736 0.02696779737702501 -0.002517779646092609 0.01097082582218086 
0.01338371981367131 0.009077710619347508 -0.03847396748057924 -0.02564762760007379 0.009426479678781019 -0.001519630415395456 -0.01103379693795342 -0.001350819439454516 0.007241278903531612 0.06447174225655103 -0.006028271612865971 -0.02251517013050359 
-0.0108402810780661 0.02353672056867439 -0.005243816713071421 0.001972985434871112 -0.0129562624496403 0.006343644865687186 0.003136606867294972 0.004695645114546198 0.006007268822745727 0.005037187918074786 -0.000363517057122097 0.01737829563696865 
-0.004245589371408355 0.02590465830011557 -0.03558395286126999 0.006751628831206033 0.0003336967087329471 -0.003549017916869143 0.02274538001853609 0.007340554313944326 0.01408051260544925 0.0198395227992856 -0.006925531179743526 0.02912626628324581 
-0.006594742205897653 -0.002367992675151473 0.03033965723261135 -0.004778536654019364 -0.01329002756121139 0.009892656136995874 -0.01960855778200559 -0.002644878266844613 -0.008073203958146388 -0.01480216351511583 0.00656201002803576 -0.01174790689581205 
-0.009737134950975938 -0.001488229947175237 0.0007833244295777933 0.00141619473322662 0.000329063351975385 0.005803960495774926 -0.003516992313343595 0.000747630028322205 -0.000594904835094946 0.007726537444052694 -0.002132785811919377 -0.003893512267954694 
0.00420611267797571 -0.002748044940419923 -0.0004218204929460502 -0.000397543358960259 -0.000163148017985666 -0.002606329347285368 -0.001454761155932373 -0.0002343679052389071 -0.0006571978566100435 0.0006844354301798261 0.01021083521030461 0.00163820207010374 
-0.02171968257732379 -0.0427264986807484 -0.06078593718727165 -0.004726088416275339 -0.01223702592091392 0.0002024927485392867 -0.03697982852320069 0.00328000139874399 0.006438928715294292 0.02303967315526045 0.001763507884049164 -0.0446806071665258 
9.25489253542329e-05 -0.0002578944756923484 -0.00799127840662469 -0.006697486627215667 -0.002388056386147208 0.0002413694223638285 -0.007514459587405694 -0.0003481661613783153 -0.0005110822279029832 0.01539275768845514 -0.0005437699049653374 0.002621788776337335 
-0.01649957654429066 -0.001662383220863806 0.04080682419575343 -0.008740577335052912 0.04302366691647137 -0.01228579853534916 0.02433595148161913 0.006042576746873279 -0.01759106601115013 -0.06078880212747337 0.006894507729254562 -0.04231914944822361 
-0.04385830036664169 0.02427304727036539 0.002322922200609134 -0.002991108551382122 0.002544959601033196 0.009797909537363234 -0.002631831846554507 0.005969653523575671 0.006943140971658803 -0.03005830393368814 0.01027088650139909 0.03462951951415576 
-0.002681411642283466 -0.02193078881584944 -0.07437818633638751 -0.0167254270609848 -8.703401812730298e-05 0.002377092821728742 -0.02110781390476485 0.002439510600811811 0.003864877160221142 -0.0137541491872859 0.002042839656382258 -0.01528849784384281 
0.01247240478793354 0.01580630741027427 0.03403302562483645 0.000401335094683287 0.01138773849967337 0.001022897041887548 0.01809475324683145 0.0005073197963596659 0.005334131621865726 0.01252575051738831 -0.004088118927995954 0.01972108122557573 
-0.001756626683553827 0.005167789740185215 -0.0369038919831677 -0.003804203177712481 -0.01443396054260511 -0.002095296546894299 0.003332698373705404 -0.008383458266792158 -0.02557409212242209 -0.02183527164865205 0.001725259806399953 0.03017217391913026 
0.006810424313588493 0.004357038811190211 0.008720935106285329 -0.002180265269038066 -0.0115276497255351 0.01150159279041066 0.01133045931178199 -0.006396446351440516 0.01100563601847595 0.0177656581979033 -0.008212611916245404 -0.03932797518660584 
-0.01333668549080988 -0.0153011917449666 -0.006758800285424258 -0.007173713459398211 0.007323715172560374 -0.005497240821319918 0.03574435660946096 -0.01074313731551864 -0.0002631552655834568 0.01394066792146086 -0.00389705918029569 -0.07415863270591211 
0.02014708126858134 0.01965798704285755 0.01547965730241749 0.004993525059091278 -0.01885128032946503 0.01699883173029439 -0.02441394368489332 0.004346717806841276 0.01126873959958005 0.003824763021739378 -0.004315558539439993 0.03483053652506832 
0.004878992477781253 -0.001758440736922791 0.0006198733292561806 0.0004638704825313384 -0.001437763966775056 -4.367409880140943e-05 0.001482120247169039 6.286675280479644e-05 7.760765041339096e-05 -0.01019721003609083 -0.0145064131734759 -0.002263355277904622 
-0.009671026569323875 0.001523668514178163 -0.0009548949928984026 3.398441034953773e-05 -0.001422020219955581 -0.01600854160290497 -0.0002325240214377047 -0.0001273846697121578 -0.0003065475195950425 0.008930801183837506 -0.01334274872300032 -0.006083735097533697 
-0.0041711986327629 0.01263994208579761 -0.04416843817270469 0.008673872376500859 -0.001282242827599965 0.0008659453333796009 0.004733597522413273 -0.002998407136223601 0.02975314879939879 -0.03142289370367116 -0.001582400498504281 -0.01003485212480732 
-0.0001817023267940727 0.004385088906923262 0.02059755807836889 0.002237923652792413 0.0002972091094599907 0.000654646439126093 -0.0005140176722888412 -4.138199762666823e-05 -0.003158005587281437 -0.002736915211371706 0.000182818149034615 -0.004740903271760496 
-0.004554349178365964 0.01624809532864703 0.01697743239369195 0.003184127474177208 -0.01049025469197544 -0.02141520582588468 0.005070482868252623 0.002871930997702834 0.0390646914808126 -0.0369352153715432 -0.004859372922783561 0.06771227732802956 
0.0107270886817345 -0.006800220615311253 -0.03878316178085411 0.005018413596921849 0.02013327243921245 0.0005804385745377244 0.01719129025624651 -0.008989136643795042 0.008201468776730779 0.03527290061719415 0.008977145211412142 0.005782710238671751 
-0.002916861171438206 -0.02939507162076428 -0.06468246443485869 -0.006152705313906071 -0.009783769922894059 0.004709612849921888 -0.01056614163380629 -0.003934941416546143 -0.003780652950492604 0.01752966632247629 -0.0009061409156714135 0.001643704335933936 
-0.005758792943560346 -0.007386105094977565 0.008619945944480742 -0.0052394513559751 -0.007364364107704636 7.368273255104645e-05 0.008944423652632209 -0.001620030795560739 -0.005439308230133649 -0.001376598978648999 -0.0009359872097259321 -0.01029061838531426 
-0.0008617600175837767 0.0102503685407867 -0.0366596684598006 -0.02051813063516884 -0.009481153954621051 -0.003748377099370711 -0.01635518839191519 0.0002501799764176275 0.004984291069757339 -0.02029835717476298 -0.001832835667972001 0.008252821809167624 
0.04674867427787038 -0.02355624316483421 0.05082922060598217 0.01012167851555489 -0.009291042148288967 0.009191863177469957 -0.02457522030935528 -0.01802607604055187 -0.008968983831465212 -0.004867258810916169 0.00106554563729554 -0.04065200193489357 
0.004498444130975268 -0.02500622303617984 0.02208778642231991 -0.01258316640195423 0.004808545789495924 0.001813577620173172 -0.01611794948379639 -0.009284646382999853 -0.02350120558725947 0.06600316130379558 -0.0009919003260221765 -0.0025258314884059 
0.04225025838156122 0.001450125964126514 0.02874134661293829 0.02270499266516809 -0.01409968478599439 0.007378281344530248 -0.008457273468718654 -0.008741398573069017 0.01453218278971832 -0.0708706765772943 0.002057472812728257 -0.03812624630217858 
0.02084728085110071 0.0009967545676359954 -0.001880664264387165 0.0002126008923537455 -0.001126650105286689 0.008848662308297109 0.0009432616688563049 0.0008967916565284221 0.001201919081255015 0.007691417256887332 0.004682540277734416 -0.01416081219229135 
0.02690330842481248 -0.001076725195875442 -0.0006933141112628842 -0.0001493635700680405 -5.099329761915355e-05 0.01297816483715862 -0.0002366770959319441 0.0004789269227613182 0.0003910125018406717 0.001364341067062367 0.007786290592158656 0.0005244699278971081 
-0.02475751004610948 0.0326896312558652 -0.04543680960487857 0.03278597493218643 -0.010529299983876 0.005694102280738175 -0.06288348466721465 -0.01613490699791024 -0.01987619975876639 0.07799125208258165 -0.007301870153497731 -0.01627765011916051 
-0.008538179714128511 0.004722450942057442 -0.02060158304533765 -0.001270576267049067 -0.002004139744132638 -0.0004834436129117372 0.003486935731463572 -0.0003252271383724593 -0.002121208933496437 0.01361532223462106 -0.001201319143401492 -0.003174899606889177 
0.03910297884493208 -0.02087759772055346 -0.03281565075804312 -0.009516406968825376 -0.01950061310364525 -0.001864433947680534 -0.03330603005721262 -0.01030923991219094 0.004971666913519977 -0.0550586248303868 -0.00692775382745403 0.036563847987471 
-0.0314161029395531 0.01922917682420025 0.02448261280486862 -0.02237186554255513 0.005747910455937599 -0.0008015627218154268 0.01478215667976518 0.003984077625168981 0.005768946553961149 -0.01313965443955249 0.02692567974224849 -0.08673543882674507 
-0.01372317785452352 -0.01251909728559704 -0.08023638370315976 -0.0125538480260328 -0.02046033460328627 -0.0002951724360834063 -0.01919878381193219 -0.005957498101641439 0.003166255763117878 -0.00796881142372172 -0.000211698932264817 -0.02020681844321578 
0.02375082646163926 -0.03188808930312553 0.01992738553449719 -0.008799047774776006 0.00422178256396171 0.0002260786534096852 0.01712132985990406 0.001109996154870284 0.00126000232681634 -0.0203466493042583 0.002165235796699232 0.0005077162636436918 
0.006436034182604734 0.02329880620574468 -0.04903395313594054 -0.005556538865957378 0.006161909468820585 -0.001193953687095643 -0.006578162781431253 -0.005413883970303527 0.006284428284637292 -0.02689484727895206 -0.003429149376910448 -0.006342835924829187 
-0.007828538634233977 -0.004865646716978178 -0.01117718574310203 -0.001744805864824949 0.002273702817604506 0.01386177480199288 -0.008439572693105694 0.002549332411177769 -0.008002314376409015 0.06082125680700717 0.01116771319333259 0.01087942910976114 
-0.0005702528924282142 -0.01914964308624488 -0.01714445809549621 -0.01613489727561973 -0.007490054519900112 -0.0007923628234146491 -0.04585997777920931 0.004773372547393479 -0.01637440765416644 0.008526064781252857 0.0207724274179839 0.00521882090831037 
-0.007258236856024113 0.01428410164646508 0.005967589290749501 0.0143901532149163 0.009763804865074763 0.01465415121470278 0.03742012579520106 -0.002224062054497391 0.008372052148205925 0.05229510201171486 -0.009604710452258972 0.005660719395567402 
-0.01567116531868435 -0.0008765467033325601 -0.0007042525054937105 0.0004609144087936666 -0.0002209196523882496 0.005873894486086946 -0.001623206001710367 0.001250378926455497 -0.0002618208331838479 -0.0118660439952954 -0.005426376375520794 0.006649101205241826 
-0.003552341158207629 -6.059212961174887e-05 -0.0002954016299505577 -0.0003061684639147311 -0.002186160404519376 -0.0009266066273351319 -0.001413102780375253 0.0009948132176428937 0.0001168444255442268 -0.006614264593974492 -0.00907348965602579 0.004555584887596918 
-0.0004448967061815801 0.02497644991189956 -0.001139350290638898 -0.003295378850305039 -0.01929427725453781 0.006030256282072196 -0.02605198007363857 -0.01853440698698422 -0.01829570285270386 0.003899966258908065 0.01531686161087679 -0.0296731055175085 
-0.004401063119023594 -0.001063357403982518 -0.02567380824682155 -0.003482327564600653 -0.005447320265917278 -0.0004178254611673074 0.001470679355088727 -0.0008590766423840466 0.002335767394819406 0.005735445734406615 -0.00143202710154226 -0.00816354328595972 
-0.00208781358266353 -0.01108156397493072 -0.001192666750207426 0.009631884765837458 -0.00649100203240917 -0.007769190791874245 0.02715532490001242 -0.01246349029243169 -0.0199103124443912 -0.02477788132673751 0.01977062301768306 0.01361191729587485 
0.004804642610708379 -0.01777965637516753 0.003422983017026236 -0.02534765942453473 -0.01148760573670313 0.01036472397489334 -0.001250349912306918 0.002793549677894231 -0.02819342915097379 0.01705853294430306 -0.005362493955998744 0.01068308788790946 
-0.02172966647810215 -0.01244648419708724 -0.1063737994687381 -0.01555716065555448 -0.01638875945271859 0.002417277292631194 -0.004219954144227689 -0.005674957078893091 0.0009979462213523856 0.04525472268914138 -0.005126003747864989 -0.01928677451903408 
-0.008251711252727802 -0.007245698247329615 0.05014646542901832 -0.002625037391851301 0.009438409412987552 0.0002273537552005578 0.0005522686355627437 0.002929840065202241 -0.01153828284824044 0.04331777854314609 0.0007050662904839074 0.01761363739483334 
0.008472845294743582 0.01439044126551219 -0.02528896545216017 -0.02427824152339331 0.003115588435133988 -0.002243176933744678 0.005883408870416914 -0.004395342032639979 0.004585578750642115 -0.03804095400223374 -0.00323007618115653 -5.712601672108628e-05 
-0.01082492928469617 0.02577457054879648 0.01857787048575457 0.002511704760793523 -0.0003894472164515211 0.004234460971812526 0.001260687408514908 0.01279798786659671 0.01361594894111306 -0.004713527624160448 -0.00773274928995366 0.01308699339461405 
-0.005731907126776899 -0.0139265764245282 -0.006773204087787211 -0.01085485467169148 0.001738647394032975 0.003037824900026098 -0.01179311963554331 0.01333064334045163 0.02781013517067427 -0.02810337764737315 -0.002724293270093789 -0.003439269686315047 
-0.00509301214663398 0.03970108536250165 0.0253509512863373 0.01336668562603715 -0.002128093680318463 0.001196661299324426 0.01305392822306592 -0.0005326639687596268 -0.01419412846615774 0.02338983577508327 -0.005008467827315124 0.01652612183974943 
-0.01524846624624144 -0.0001032431235637466 0.0001203086057616416 -0.0006075797197856535 0.002835968595914525 0.004440479953589059 0.003976736525829631 -0.0009949916246257218 0.0008541879569122667 -0.006845923138957564 -0.002743689063416764 0.001388533840773167 
-0.008153966804465422 -0.002076012074138702 -0.0003255620110186702 -0.0005584376650040104 -0.0004578585768040453 -0.01636761488781706 0.002787139160064734 -0.0003313909538912742 -0.0005619992884106593 -0.006241174137985117 -0.0006258745984800197 0.003735529919455232 
0.02089855112639804 0.02184971560949749 -0.03282711090800795 0.02059290366434259 0.002446571229612845 0.005865320396812868 -0.01573741621024531 0.001210292680512692 0.01303316087887305 -0.1091563531530733 0.00253879945469397 0.02620365245232254 
0.003791881244765955 -0.000434386061286445 -0.01594745702932904 0.001410958846709945 -0.00365620317030855 -0.0002456971444729915 -0.00204475610302243 -0.0003370472518503674 0.006839277675377065 -0.03423222849715898 -0.001125863265310331 0.005012183530501634 
-0.00724016427905098 -0.003648330617719655 0.008712300400940717 0.01488811834692991 0.003250114931975321 -0.001610151271837616 0.04131009523190349 -0.007998121677052567 -0.01138389525010465 0.04575152460167838 0.01079198031213941 -0.05880098357063585 
-0.03244208248657472 -0.01136796557537383 0.004281355643955484 0.01387459894725276 0.0112681886054988 0.002388840230891808 0.03217295654286755 -0.01103736755601334 -0.001271598966006593 0.005071462842917167 0.002502942574220599 0.002720784108030176 
-0.009921938104852342 -0.01617593521059035 -0.1294007075822448 -0.009574930401808124 -0.004976327728458 -0.002058858744362525 0.005358273689924784 -5.205408590286286e-05 0.0001417286564066655 0.00109730480563001 -0.001421029881750083 -0.02487092264493177 
-0.01102764505661579 0.0007546899672031859 -0.0009402605364804625 -0.01013918591657306 -0.003508478319135104 -0.001341536158886929 0.00219434096272344 0.004361167584153002 0.006823404022429826 0.04823746337728563 -0.004474937535780464 -0.0007764153576952534 
0.01058213666636659 -0.02958585508057501 0.03628958796081806 -0.01300038867401489 -0.01768547952554406 -0.0004471212370751281 -0.0336705962315489 -0.004861748928264804 -0.01051315672473519 0.01364891990491112 -0.001700804889674304 -0.01250226693911573 
0.04292222999731859 -0.02545855348430365 0.03853625086358409 0.005588300356255809 0.01178697727292893 0.0006996724344203452 0.01589547547509937 0.01274047188560969 0.002696850698322447 0.03702170914063776 -0.005954835790245552 0.02392635355480483 
-0.01230553965612096 -0.0348101508625375 0.01682395523729215 0.01271635044536865 -0.03016227679884878 -0.007403515827810768 -0.007114557099045757 -0.007802773145651958 0.01469761045285365 0.04547192405410986 -0.01845701048832056 -0.0290866549217299 
0.05522766435018611 0.009351482869549448 0.02171272031471713 -0.007128016650540242 0.04194940306134242 0.008103174528400474 0.02300988492687128 0.02054324307373449 -0.01200072958784617 -0.008450190970994208 0.01250218401780203 0.05301293776207799 
0.002373000191926621 0.0007825566555157124 0.0007493701968855344 -0.0006484906870133254 -0.001626752895351362 -0.01298902601454855 -0.001657369386237749 0.0007261593272514836 0.0001221208036568124 0.002230492844242421 -0.008409756168418041 -0.005815759173647564 
-0.01029875963273617 -0.0003397684307483406 0.0005157160870021216 0.0004566130452046095 -0.001761905692113299 -0.01762392236228589 -0.005339426803803282 -0.0006348048474921683 -0.000106096539612928 -0.001398650814138555 0.003410781638093278 -0.007083213086410461 
-0.005137352042157697 -0.016746866520167 0.002893694306417455 -0.01226297436973865 -0.00558074864364853 -0.002791795117634313 -0.03865543086519176 0.003016697860343451 0.02067208689051984 -0.05812559148087272 -0.002286806784420517 0.004705351707720263 
0.006273979237596398 -0.003434581996155819 -0.01032455186218165 -0.001288475453432505 -0.003132933449911386 -0.0005875724199873981 -0.006156398666354655 -0.0001121082757561326 0.002032045774570111 -0.01184429184203088 -0.001012707557636878 0.003429044654095999 
-0.02815935460935372 0.02381668386890179 -0.01467422150472078 0.02075571623357982 0.001332048096983624 -0.005289263803405934 -0.0003180686045275316 -0.005995147380014901 -0.01359127135179085 -0.00663150597701485 0.01439991389429621 -0.01540758247155989 
0.004930434723616911 -0.01556894659240144 -0.02500224109710541 -0.02689925213658407 -0.01265988179926347 0.000838095838371179 -0.01628584396343572 0.006247105909000215 -0.0058944826370423 0.006600960796594388 0.004812951039456187 -0.01035302814775386 
0.007329743814117867 -0.03239319233912882 -0.08089899167096269 -0.01405890383014991 -0.0124730618542524 -0.001644666110293488 -0.01308702674340492 0.003088856237132487 -0.006427088247065654 -0.02255035116759681 0.003246562259381424 -0.005146701560341301 
-0.004180738188996335 0.000955115333378186 0.03350447283220823 0.003985326747505267 0.0001530691738218882 -0.00127508606254874 0.01473847619496717 -0.001044389548287203 -0.006708483859563876 0.04504263826370422 -0.004501955751933062 0.004621605352777846 
-0.001182060380299567 0.005694913372384687 -0.03418215409340493 -0.01256781100197803 -0.003224756353953754 0.002361257908049243 -0.01507781108823015 -0.00605847666620644 0.005164437674222303 0.0224020834360292 -0.004544905103398412 -0.003128166864010901 
0.003597178058046444 0.0145449574189337 -0.004061461181634712 0.008022363940269259 0.01339132201883943 0.0003812970150513462 -0.008569159283872271 0.003450826214878637 0.02448219581427264 0.01605494024559317 -0.006348437139690944 -0.009363927085495116 
-0.005580194745714733 -0.01755505487509429 0.008221584728004865 -0.006042343905648678 -0.02046348526055048 0.001696246336046771 0.008204581739601641 -0.006713729478193981 0.0151194020582984 0.04723092054314614 -0.009487293126890048 -0.02845931916624429 
0.009177378672075577 0.03209999739959017 -0.01228316085465641 0.01406473050610137 0.03385482761303839 -0.001314957532644996 -0.01677373944521332 0.01016452473375657 0.009362884439926996 -0.03117590775549234 0.003138861962422725 0.01909537389070068 
-0.003211307674097375 0.0002041212280831289 -0.001867360083136644 0.0007806874886008511 -0.0006246827045482922 3.830652120725176e-05 0.001669491998214681 -0.001559932077537404 0.0003899357895726742 0.001506810544641051 0.002805656745980298 0.0006852083667366016 
-0.003486408638092752 0.001004342859071621 -0.0004238343626086602 -0.0003537059762903678 4.885673090552634e-05 -0.0133533559595598 -0.0003178180839979755 0.0003677498677490025 0.0003745294916372399 -0.01368982952164031 0.002556167828805009 -0.00218886571975063 
0.02231172285616024 -0.002924198756265153 -0.04000283527025414 -0.01200025671187069 0.0326285181786152 0.004620028745946925 0.02327190287114007 -0.000973060613828655 0.01465842070862731 -0.02550043050365378 -0.005420531406872651 0.0377681889646786 
0.0006861302915945491 0.000805115413319961 -0.04861125801586966 -0.001074721055907888 0.001210833961606654 -0.0003696166431887787 -0.003222345932762843 0.0006433139169727361 0.006573539257185021 -0.001874441521018483 -0.00135974502178285 0.003265977971884715 
0.03095567657488873 0.05428339194660723 -0.008788552536321874 -0.01302685866591132 -0.00757892705438938 0.005155936466750892 0.03315142083223649 -0.01838062835132197 -0.005007260272425825 -0.0804228862685646 0.01056102428657958 0.02274812335042619 
-0.005717334471238288 -0.01087250225830818 0.03795997323874799 -0.02205277480335506 -0.01331851159886389 0.0041536721582414 -0.02143457909776064 -0.01563650977404099 -0.01014275372131422 0.04122599568683597 -0.01025604688316188 0.00718867115693692 
-0.01473320227163946 -0.009161525579097392 -0.1170894989634291 -0.01752714437607433 -0.002281545323981313 -0.001233848531081707 -0.02377138456409487 -0.0006167373323324535 0.006869982597605558 -0.01500095916899604 0.0006117458380568636 -0.01697802106648663 
-0.01005440048255484 0.002307747176332393 -0.03322350459671855 9.297215100971613e-05 -0.003949468006804764 -0.00148539538517945 -0.002183273541518064 -0.0009376137404829081 -0.0001954930551322909 0.01039838842244143 -0.001706416987248902 -0.01242743282659077 
0 0 0 0 0 0 0 0 0 0 0 0 
0 0 0 0 0 0 0 0 0 0 0 0 
-0.01256219560986613 0.03329151554284076 0.02047081466519471 -0.0008373386806981536 -0.004190053192014662 -0.002011973254919435 -0.02854380014737493 -0.008484166827027741 -0.001454456019017652 -0.07672539905729589 0.0141435175813292 -0.03769418133260584 
-0.02004554886801279 -0.0476120230347868 -0.039352622945924 0.01096216928921892 -0.03007727758691608 -0.00217647978623041 0.07094368655407998 0.01157838911241619 -0.01990060343524586 0.002842233772378499 0.001043914018228099 0.03679155945332378 
0 0 0 0 0 0 0 0 0 0 0 0 
0 0 0 0 0 0 0 0 0 0 0 0 
-0.000839971516717537 -0.02003556359307095 0.01796082281152145 -0.003415829322499097 0.008940166318937438 -0.001392663981067462 0.02328988305664792 0.002384509513851226 -0.026710010589968 -0.0755987243095025 0.01863240205342062 0.006619530610064418 
-0.002927941489478553 0.003048375360322576 -0.02562668811995952 0.0005730482758959633 0.0009850528080793221 0.0004811987253880168 0.002161921866140963 0.0005761387541014672 0.005842409019986225 -0.02227121047879216 0.002279993828622746 0.002294473125594428 
0.02228074229903868 -0.006196009805519355 -0.006285916068175164 -0.03101881427613716 0.0009765907121840932 -0.006976468859727254 0.01750247092614554 -0.003823640438128816 -0.02371827043046221 0.07945569901849242 0.001693633217085861 0.02830467509179243 
-0.07730391293773788 -0.001966910047844627 -0.000598601440685485 -0.008546408260721955 -0.0324930972800816 -0.00708421761421394 -0.03632637840882415 -0.0119373196444948 -0.009397778805128968 -0.06741414231748938 0.02890192000200819 0.02259528943730098 
-0.02291974069807695 -0.02203348787457904 -0.108600964804716 -0.01911802117923781 -0.01584497015904213 -0.0033337061249687 -0.03023079309189333 -0.002067646213509233 0.003636963860521877 0.0009746828514566665 0.0005416224940478155 -0.008810024759804734 
-0.009386464655435807 0.01246778267062115 0.03973732668875765 0.004339379695681631 -0.01853894849261827 0.0005349323558060526 -0.008727346302889877 -0.003968936878639152 -0.005865238415775037 0.02401965707180052 -0.0008422923594836206 -0.00912764454623134 
0 0 0 0 0 0 0 0 0 0 0 0 
0 0 0 0 0 0 0 0 0 0 0 0 
9.266455901426385e-05 -0.0004729202095672792 -0.007889588254239278 -0.0002396871917108684 -0.0006190098949769176 -4.134949584281653e-05 -0.0006842920450944198 -5.235005348605437e-05 -0.000206090588645945 0.002801915373945022 -0.0001790669102447908 -0.000277512247078896 
-0.0007014173916732041 -6.263579441098173e-05 0.02856979189643802 0.002121664894002306 0.0003840385954741927 -9.823091417501786e-05 0.001614475930164876 2.418638560466741e-05 -0.0002501317876095984 -0.003331334549551453 0.0001226731773261173 -0.000194046396469259 
0 0 0 0 0 0 0 0 0 0 0 0 
0 0 0 0 0 0 0 0 0 0 0 0 
0 0 0 0 0 0 0 0 0 0 0 0 
0 0 0 0 0 0 0 0 0 0 0 0 
0 0 0 0 0 0 0 0 0 0 0 0 
0 0 0 0 0 0 0 0 0 0 0 0 
0 0 0 0 0 0 0 0 0 0 0 0 
0 0 0 0 0 0 0 0 0 0 0 0 
0 0 0 0 0 0 0 0 0 0 0 0 
0 0 0 0 0 0 0 0 0 0 0 0 
-0.001067867719149116 -0.001912545775348911 -0.02064895422908629 -0.003120498645128641 -0.001667312417698902 -0.0002289035756840115 -0.001362902119798637 -0.0003616023880060329 0.00216141540871126 -0.00441817901226796 -9.777377105198054e-05 -0.002090029662757127 
0.003064827207760999 0.001002922716440015 -0.009686570956185242 -0.004831609504274832 6.102863512409291e-05 0.0001492965749476679 -0.00386961868141893 -0.0002209388306241399 -0.0005253290568128594 -0.003551355418388584 -0.0003816264190285825 0.0008392861529809705 
-0.0107477177832224 0.0007513499168241162 0.001066425950489189 0.0006647828221203831 0.0001127442294743941 -0.001367766576929094 -0.002369503044509436 0.001183472416481205 0.0001403984138886903 -0.01575210575089403 -0.0008099782751395344 0.002083051542237477 
0 0 0 0 0 0 0 0 0 0 0 0 
-0.001566834639622822 -0.003137075740146877 -0.02547695877227909 -0.004749562093126805 -0.002039012615926548 -0.0002925033980079136 -0.00345493923531855 -0.0003561520451547828 0.001870376735744562 -0.004440073902297954 -0.0002953065918680957 -0.001909473492928344 
0 0 0 0 0 0 0 0 0 0 0 0 
0 0 0 0 0 0 0 0 0 0 0 0 
0 0 0 0 0 0 0 0 0 0 0 0 
0.0003627242833093222 -0.0003661369151982874 -0.003392344993868566 -0.001453721959105958 -5.97582296716875e-05 -2.188453208753282e-05 -0.001262374331814771 -2.776861737444992e-05 -0.0002873092795966508 -0.001080777364066571 -0.0001288403008256778 -5.07769909682733e-05 
0 0 0 0 0 0 0 0 0 0 0 0 
0 0 0 0 0 0 0 0 0 0 0 0 
-0.004383607635453581 0.00675688907695865 -0.0004324534559361752 0.0003226147288220356 0.009016285664195796 0.01667468933577871 0.003421173248526161 0.006494735831286961 0.01974607997940816 0.00829675549505628 -0.01073966272499761 0.008240151474363439 
-0.04477221194983298 -0.007830850583787952 -0.00496422638390447 -0.003997757784566245 -0.004544693983050939 0.01615448524452809 -0.00843554802808519 -0.001649812568444109 0.02452204540484755 0.01095427475946432 0.002638666745450026 -0.003454663954885977 
0.04038873809167591 0.0145873257018477 0.00453195160688725 0.004320350109591503 0.0135608375479445 0.0005202243500315834 0.01185645030548721 0.00814444657669465 -0.004776195447693224 -0.00265763762440165 -0.01337830142032535 0.01169463711448775 
0 0 0 0 0 0 0 0 0 0 0 0 
0 0 0 0 0 0 0 0 0 0 0 0 
0.01593215060571333 0.004769741067247623 -0.04516667666622642 0.009649452728750138 0.02076531255516443 0.02066703994457478 0.008919212740721362 0.03487085106113979 -0.001773751181726272 0.00605101418406302 0.003044061732357885 0.03694545738142204 
-0.01168751833179281 0.005844996121913473 -0.01262491384313698 0.004811530409437361 -0.0008722875565005646 -0.0007311208190969486 -0.003293605411885295 0.0002719761865156149 0.003100830356864715 -0.02075110826885632 -0.000136340557283569 0.009020477082724188 
0.04770674309483301 0.02094012167065844 0.02123917801277436 0.008814936590956371 -0.009176920916801071 0.0045866215646692 0.02830791973388933 0.02127753171183402 0.003787011082086567 -0.05877648917913108 0.01125535704594079 0.02412385907712145 
-0.002630490883563965 -0.003290400043848383 0.00130408475995868 0.0005098285969083702 -0.006885482366710621 -0.001189943547134855 -0.0005366722915384858 -0.003290095472634314 -0.001906440137348746 -0.0007402869165026921 -0.002339067684317425 -0.0006285030699074044 
-0.02872412267809919 -0.03213828889948622 -0.056250451956796 -0.05238351449185956 -0.01194186444104727 -0.003263502157470944 -0.007627683253658795 -0.007369157549793205 -0.0353531807558671 0.04518373990979305 -0.007502995995849191 0.0007636245318663096 
0.006053835078509765 0.008879893603079248 0.01500474984619171 -0.004295071767276028 -0.001416149893356259 -0.00161121916207104 -0.006609560104917684 -0.00143634530774191 0.004171296719870439 -0.004869247110252799 -0.001693165641441668 0.009950061252657722 
-0.05327229629777053 -0.02345195931276548 -0.01276712265615081 -0.0031195320650726 -0.02905480111249376 -0.02395937740397033 -0.03578943721073591 -0.01820676608502357 -0.0161605418392303 -0.01279861853370306 0.0007585178044387286 -0.07146758608360917 
-0.002477828220861686 0.00106533512720632 -0.0003702737464412174 0.000226419920671712 -0.0007779717183924824 -0.005116482415728815 -0.00472698308321866 -0.001470648141567692 -0.0006594038625019751 -0.001090532472358029 -0.004548383103887903 -0.0008382688159116896 
-1.201727993917039e-20 -2.43185889670586e-05 -0.0001404566000797527 -0.001238103791287947 -0.001684674841770967 -0.001686044240024034 -1.714068938398612e-06 -1.03164302695426e-06 -0.001886057363718876 -0.000397582288562547 -0.003489228762533552 3.410862712250159e-19 
-0.002477828220861687 0.001089653716869209 -0.0002298170360640988 0.001464523542783005 0.000906702918250064 -0.003430437143002626 -0.004725269014280292 -0.001469616497786348 0.001226652263384597 -0.000692928888096286 -0.001059163411044862 -0.0008382688159116654 
-0.01004923054631604 -0.002018779548933733 -0.00110549376729006 -0.001198151162328856 -0.001319371172655302 -0.01113392788001876 0.0003332111957181191 -0.0002821950843005578 0.0001892141453993497 0.01755738948340569 0.00422613291366504 -0.001418744994177909 
-0.0001780274483109869 0.0003914473016342138 0.007408923365826419 -0.0006635177728828803 -0.0007423173122565716 0.0008531832707731849 -0.0009153780675117861 0.001233376095949206 -0.0004274973023189069 0.001344475856773972 -0.001684238087766922 0.0001529507590645282 
-0.006960815393990381 0.001102713022426485 0.002039472774379086 -0.001544837736506348 -0.001582855154485964 -0.002618583997666948 -0.005632869137118354 -0.002682932289498434 -0.006079666272823597 0.009150476683375253 -0.001707084961594303 -0.01653272839412454 
-0.004309060720684365 -0.001277832003304793 -0.01237624455857757 -0.001847885272404438 -0.006133760067079877 -0.0001899310858918777 -0.000626378399887073 -0.0001674520843354822 -0.004800266388554869 0.008616846739033065 -0.0007605489261098154 -0.01006271522463006 
-0.01233752524056161 -0.006360743137488388 -0.003472194397697567 0.001074645870069254 0.001522182876926426 0.005024089141982937 -0.008119291600021845 -0.001776734658631137 0.003022797683166144 -0.007459325056783841 0.008632956365682761 -0.004743060191784553 
0.0003091797016064785 0.0001486770210836043 -0.0002461879119564752 2.712807167186509e-05 6.769129044012047e-05 2.869859951848255e-05 0.0001519018641824046 0.0001353884737141585 -0.0001631146774011175 0.0005587549220610372 7.610670216876585e-05 -0.000437196210242107 
0.01459802440565513 -0.02314236603694205 0.011597942761009 -0.008657932533196357 0.003458916692970353 0.001867933393202547 0.004169654219285533 0.004691201225815018 0.002073081557937746 -0.004520119241607036 -0.00384009341646461 0.01882562476115338 
