solver_type L2R_L2LOSS_SVC_DUAL
nr_class 5
label 1 2 3 4 5
nr_feature 186
bias -1
w
0.002087910392320444 0.001861285694900808 -0.002790621472505847 0.0001813216009008024 -0.001357398601132174 
-2.504974191844014e-05 -2.353996844963277e-06 -1.411858342860355e-05 1.809698840145165e-06 3.072996519570499e-05 
0.002112959795611146 0.001863639214497115 -0.002776502081380123 0.000179512012067857 -0.001388128529325131 
0 0 0 0 0 
0 0 0 0 0 
0.0003830291816770825 -0.0001238127113935904 -0.0002402802021189278 9.559100133513564e-05 -0.0004020816075635878 
0 0 0 0 0 
0 0 0 0 0 
0 0 0 0 0 
0.0007187190503997313 4.109053772108707e-05 -0.0005332687908969884 6.926651147091541e-05 -0.0004040226012053965 
0 0 0 0 0 
0 0 0 0 0 
0.01848203706740265 -0.02839155455183291 0.003709036738820861 0.04076536049070267 -0.006936874957004393 
0.01958311930301295 -0.01223513594017413 0.03436535292280895 0.02615767239597711 -0.04602890881098298 
-0.001100629822993432 -0.01615625940032196 -0.03065624594309474 0.01460769511821092 0.03909166147985138 
-0.002590069725152582 -0.001984303550741218 0.000357186445442245 0.007678596293882409 0.002822438963290937 
-0.001853741031923813 0.00302544912392842 -0.0007113062660848655 -0.01360924840077542 -0.0004584449658922259 
-0.1116415432383216 0.05528813680811397 -0.01712197905277266 0.05841707387125944 0.04625172054504642 
-0.003341678060394407 0.0007849357525623883 -0.0005039475725871651 -8.182532589244112e-05 0.0004637945193025903 
0.03432302539515248 -0.01789571615030798 -0.003440987096662615 0.08955993167176431 0.01046272100643018 
-0.007701099204149107 0.009595186566568827 0.005689331867400834 0.01941759751744602 -0.01033760929172228 
-0.0002649008375761184 -0.05288352275391113 -0.04497842316742554 0.008489321487602251 0.06411492598405329 
0.006683835501120326 -0.02785641463815332 0.02836269221661348 -0.001858716402259036 -0.01920044720659997 
-0.04898531658707752 0.034657909816942 0.001564238018849923 -0.00241494257894243 0.006357661029542329 
-0.02126607874658025 -0.0337652346929958 -0.01656454492995935 0.03378979877189001 0.04601547983105805 
-0.02803721314343654 -0.006557278361475415 -0.00858783443621952 0.04471920182657248 0.01459014608671884 
0.006771133492539244 -0.02720777666732627 -0.007976674266224618 -0.01092964200303721 0.03142546578053785 
0.001219156946219162 -0.002839764863230658 0.001829886137984975 -0.000782919608265538 0.00101724871306259 
0.001588653928957594 0.00353438624409604 -0.002385405879939687 -0.01373337051053971 0.0008776153576231812 
-0.05363093418005895 0.02894455704770141 0.04128565812889543 0.07864746437268974 -0.05507177149178585 
-0.000877915588586138 3.051298527109113e-06 0.000237688736180259 0.0006953618089923814 0.0007892782590591528 
-0.01301207631604953 -0.0179091967827925 0.04352899753545364 0.02862104348773744 -0.01610609130616243 
0.01031812516228239 0.0002157577522486883 0.006153023670423738 0.01904551462322916 -0.02512773946800425 
-0.07537249603798953 -0.01025368385488452 0.05247728861051766 -0.00955543682788863 0.04286851464867476 
-0.003413869726757304 0.01362430000680975 0.008066481356541836 -0.01692966248106067 -0.009752806495766656 
-0.005799138955506149 0.0322225144788994 -0.02982087825951516 0.002076607117804348 -0.02364140165310493 
-0.03373007624851936 0.01935321269124209 -0.002422659954330254 -0.05476874802763863 0.02681610979810161 
-0.01498016535674635 0.02367554835613629 -0.02741102027902351 -0.05721026365626763 0.05940446890644508 
-0.01874971622343722 -0.00432224688036098 0.02498796320204378 0.00244150554883027 -0.03258821715487483 
-0.0006349121457099389 -0.0001308385641593353 0.003523396236540757 -0.01137104914094673 0.0004589642593456095 
0.002104087107498185 -0.0006409872306639713 0.0008063324918589724 -0.01261290818049002 0.003984837990279487 
0.005871116296688745 -0.08009743229144881 0.08317339371116533 0.006829368194533287 -0.1070401702843692 
-0.0008270725931203113 -0.001416539300704062 0.001248327325537833 -0.0004618608338877772 -0.001061890588245858 
0.05987648952831873 0.02659051286144541 -0.008205328797830915 0.01899973544130238 -0.07865449405958833 
0.01504593780706594 -0.009477423820189913 -0.005007710818971889 0.004210027406765425 0.009089921090234356 
-0.04666877270559712 0.07522855233806972 -0.0171257299562087 0.006799200535746447 -0.01493714914908957 
0.007522371754792349 0.03555503542989146 -0.02621218821088974 -0.01162556414279589 -0.005652302522993014 
-0.01569314995653371 -0.01052902763587805 0.02462445405547141 0.005685780051787073 -0.02173733667648633 
-0.06053745342153754 0.003411609754837531 -0.01508302288556486 0.08904513878250489 -0.01855767397728429 
-0.03470674771626353 -0.01740779462645735 0.01031316083673998 0.05623489848313673 -0.006049117651421509 
-0.0258306877707247 0.02081898162362023 -0.02539621015739776 0.03281023132510578 -0.01250830444188253 
3.168180666689691e-05 -0.00164113584010298 -0.001127075533009661 0.01279188964614136 0.003069470404210648 
0.003935297947700257 -0.000291917760586478 -0.003375801286551836 0.01231806882641946 -0.006075376951531014 
0.01857425824633354 0.03825300870770587 0.0290719958257825 0.058603723658352 -0.09948860115406223 
-0.000578920760340603 0.001929734126986043 -9.230392402235328e-05 0.001354741174804944 -0.002561501000862986 
0.02230583734847509 -0.03506614501187601 0.005152947546225974 -0.0148025453797195 0.05328820527107753 
0.0100071036277089 -0.01102237319822081 0.008883637157716668 -0.01541954180424575 0.003622824645356042 
-0.0400295596322128 0.02020739095231958 0.00902889404492954 0.00498456057669241 0.01183136361733616 
-0.004637298034107852 -0.01958644212260756 -0.01217741476399973 0.005320043666999555 0.02007777991248626 
0.00828397512014264 -0.00300876857467993 -0.006845484311407257 -0.01100167665483813 -0.01228495262435713 
-0.02223258201042763 0.02759701157217419 -0.01456177049056296 0.04611758177015191 -0.02872107862116141 
-0.04397651903748988 0.02691214936967955 -0.007146180220054189 0.02538221305406591 0.001670199561144444 
0.02174372629286232 0.0006852605321415401 -0.007415527566391591 0.02073551164703874 -0.03039157212079342 
0.002624062819142481 -0.001086053041512951 0.0005757214441115594 0.004719320120359854 -0.001299377569448981 
-0.0001138032462832614 -0.002363984164144146 0.001270055381877752 0.005531175347444225 0.004318715189555254 
-0.02712744296495432 -0.03639959447041704 0.07573861035761982 0.0477550254653981 0.0136774683006806 
-0.000826370437516804 -0.001677409394375738 0.002308214986235576 0.001002273781556142 0.001287619992406038 
0.02080072638768959 -0.004149288703362851 -0.01871361828444423 -0.006828905753600741 -0.02335410728037192 
-0.005921822787730262 -0.0007029607018949997 0.005016154773639517 0.007551256510145604 0.0005382422693968059 
-0.06651061053261381 0.03843788237650809 -0.01277596629076236 0.01090598724310513 0.03270542700773722 
-0.01331613753406653 0.009085792008500689 -0.01987408660352033 -0.0008836506798492152 0.01080821170017227 
0.01085212399627106 -0.02648217115624189 0.001094624422772447 -0.003355085601316801 0.01196005103678236 
0.02819972026092043 -0.01181202270199486 -0.02685547293490793 -0.0002327604274555453 -0.02004414487409211 
0.02956653622339911 -0.003477457498978334 -0.0278295410720913 -0.01393616484637832 -0.005052069440098509 
-0.001366798957809772 -0.00833457288037362 0.0009738562569283482 0.01370337638815316 -0.01499180033679414 
0.0001194292840484299 -0.000726632006550687 -0.002312452656254635 -0.0002382811772738542 0.0007381072487479286 
-0.002326216003115937 0.002904128559789239 0.002766433772628064 -0.01237631806562855 0.001860385940821578 
-0.03967454603437141 0.02337891983220796 -0.002563972287267167 0.02603470705194105 0.01853426244206237 
-0.0008188231719139378 -6.772169597020192e-05 0.0003382567174519369 0.0003871917162489071 0.0007637968694283028 
0.02789407547054961 -0.04941818805742138 -0.01150976530352004 -0.0004753209782291419 0.03921932623072776 
0.01137274452356483 -0.001229250497630668 -0.004825984829933396 0.01618513169962039 -0.003167936768158875 
-0.07328349582847511 -0.02863248545828825 0.03768848909596807 0.008866731628810944 0.04913891699466384 
0.02691007022646898 -0.01986935636234544 -0.01919647682582142 -0.01153527939593998 0.01181112653408138 
-0.02310484957977713 0.05222411374863383 -0.05368730966475021 -0.008820110874409402 0.0126799215057815 
-0.002277753928791883 -0.0087332280107114 -0.02640099648626474 0.02202249877157375 0.02023276651410085 
-0.03196075816938749 0.0001292881892884056 -0.01469897201193722 0.009715122548552826 0.01497114319611354 
0.02968311723371111 -0.008862682665179762 -0.01170221156344529 0.01230737470284377 0.005261905467716146 
-0.0008175366290944045 -0.0008131700040651233 -0.000615315866309828 -0.001811515734673049 -0.003197661171612656 
0.003550385429390779 0.003175346520664217 0.0003047765903784214 -0.01037258046448629 -0.003271981990144185 
0.1023036843602824 0.08514553723002123 -0.10553599390446 0.03426310065061826 -0.02104933329237813 
0.002259568358470328 0.0003903011391141777 -0.001704953826863517 0.000148326575888303 0.0002489888248914992 
-0.001040639022398321 -0.03213008999126816 0.01597241062343092 0.01676247799030891 0.02360206455871184 
-0.00629705072959114 0.006357738856704103 -0.0008213516802381665 -0.01624733790599244 -0.0112463295525239 
-0.006381693219732596 -0.01443245812985172 0.0004818821765961577 -0.006205645645848953 0.04318954914142743 
-0.003737584219260572 -0.006541124779457157 -0.01766843059423935 -0.0008659233438998431 0.01255079082665402 
-0.01503257057333599 0.008839369642421574 0.007970851158262852 -0.00101030097341888 -0.03303529114093098 
-0.01505971859785627 -0.004901385062845838 0.006411937470044451 0.02543437811791047 0.01246651669249662 
-0.0007983792116646194 -0.005291734772792322 0.001839446519698637 0.01868437510345883 0.01601193310439296 
-0.01426095391736661 0.0003906317074341421 0.004571745443433638 0.00675013552331613 -0.003545159430725153 
-0.001340647131008591 -0.0003064906802655217 0.002759677909034529 0.004867626207744604 -3.340208112931589e-05 
0.003912571507105947 0.002409055792693265 -0.00156386232299269 0.01668769031391303 -0.003783851978520664 
0.006955031503958789 0.01964065044124646 -0.05232845152733225 0.0268046052686732 0.02595439092295143 
0.0002674888053898281 -0.001751134602209765 -0.0002047314157388152 -0.0002078859271985292 0.001186087377295651 
-0.04039350650878004 0.005634523262047217 0.00126169237587203 0.03967668195283423 -0.04697389497027137 
0.01168280742637641 -0.001719126429580276 -0.002618149181696482 -0.01386739937285994 -0.00709480280597914 
-0.06015936280971435 0.05515256752067326 0.006955547316660992 -0.006836001793475917 -0.001050947113928922 
-0.001506039468315504 0.005350661282186459 0.01574985287158 -0.01191701240240526 0.002876892941245503 
-0.006111877049630622 -0.08682292901806234 0.0008570251044775999 0.0148058383285817 0.06783293411450818 
-0.0229641419354344 -0.002470549719598986 0.02569230391364104 -0.02076559057650619 -0.02754024189796691 
-0.003911600116750788 -0.008916256429539023 0.01101832647746431 0.008153747186118743 -0.03323129185511866 
-0.01905253656758173 0.006445648718511331 0.01467390905729459 -0.02891933651453025 0.005691114749332169 
0.002192601349080631 0.000608964895127609 0.001132371570763655 -0.001550202853540602 0.0003882359441511865 
-0.00448242675806361 -0.000966017580228542 0.0005770210077219883 0.0004816880412494918 0.0005824307392885428 
-0.005965275803223195 -0.01020204919780897 0.007485190693312626 0.04205350001537438 0.02104409775689053 
-0.0009890675104612748 -5.363765607998122e-05 0.0009376170336967496 0.0006409952939001125 0.001903682265105129 
0.05065203283639196 0.003920005401453997 -0.04791141025191993 -0.004973345651513435 -0.02929441811400684 
0.01586643826457261 -0.002411192313538689 -0.0136509054261398 0.01771967395316832 -0.01174800307471861 
-0.05857036114426739 -0.03115305122557843 0.02836475694120423 -0.009169799221201834 0.03823143037609732 
0.00766394173095011 -0.05686424471842461 0.01501271813854344 -0.009220353258243941 0.007829892700709301 
0.003909961523729414 -0.02032597215553014 -0.02809926104007987 0.01664149845931457 -0.03034870401521422 
0.01631736107087586 0.02995885683628146 -0.02768999314077362 -0.02335926486497479 -0.01560048669751292 
0.01890185544733739 0.02362920200367583 -0.0223009118376798 0.01379913921373169 -0.009867648726637618 
-0.002584764934150861 0.006329757701579444 -0.005388600198391495 -0.0371583921218825 -0.005733091340049431 
-0.00102244798773121 0.001121422790810793 0.0006818711007455343 -0.006049401076346974 -0.0006291737408985448 
0.0004135187558608584 0.002704636969008849 0.003198140444638682 0.001513184836661883 0.0009725038210357522 
-0.04964373309558848 -0.03753777609040351 0.05253284693178406 -0.022251678415382 0.05726248228477004 
0.0002527032497850171 -6.548113599058596e-05 0.0006646285795616388 -0.0003599617851645319 0.0009960996788274917 
-0.02710430193078917 -0.02871323635963491 0.03056585261914779 -0.02666174908438518 0.01709244450388899 
0.002122422369431781 -0.01233786212681459 0.01176986972872802 0.0003436637883941277 0.007537339616132128 
-0.06265252860452583 -0.0005458120397324267 0.007949577140191576 -0.001179359131686724 0.04050770011877708 
0.01383718222354015 0.002478587190987586 -0.01877935011231985 -0.002835331907572713 0.009137019991796013 
0.01683324003342317 0.007808632157339208 -0.004354273575633547 -0.0003233008828454708 -0.01642884486427566 
0.0004168440332026822 -0.02473059084935787 -0.02393527014967314 0.005431513762254815 0.05548158855656198 
0.00774299340504989 -0.03077634302751083 -0.01129651464349157 0.0391068880448544 0.04250069115027089 
-0.007325816817266681 0.006045608927530205 -0.01263909835418249 -0.03367542630326136 0.01298081996969656 
-0.002246889015337785 0.002193709773042426 0.001889377312611814 -0.008709672662489515 0.0002656858156253936 
-0.00091890331257232 0.004939533482595436 -0.003246437904496266 0.002335007894710232 -0.0004043965447516599 
-0.01935973083437939 0.009863362947991278 -0.03483725793687206 0.0459016926358767 0.002763314921491746 
-0.000748365286345577 -0.001922655158183353 -0.0009996548422328705 0.001156653910417499 0.001471405412124843 
0.03028502350093638 0.06306299351630278 0.007105751417609612 -0.008428910254213603 -0.06888863746183119 
0.006776811895452105 -0.001299234264957589 0.0103286274601422 0.02707936928671217 -0.01357313023805299 
-0.06610187227847689 0.02404811345994864 0.008679203060103908 0.004220946031166702 -0.0102110010406892 
-0.004392426927871955 -0.0213801459538076 0.003521163917082383 -0.007002445335922515 0.01490351314163739 
-0.001510263299575759 0.01667670541073331 0.02361557671853398 -0.01450053816656212 0.02738325741837118 
0 0 0 0 0 
0 0 0 0 0 
0.02866974301543116 -0.002892526770912815 -0.005417665596901718 -0.02081246977679954 -0.0002131607191428244 
0 0 0 0 0 
0 0 0 0 0 
0 0 0 0 0 
0 0 0 0 0 
0 0 0 0 0 
0 0 0 0 0 
0 0 0 0 0 
0 0 0 0 0 
0 0 0 0 0 
0.00671436777489308 -0.002901702885143609 0.004347053005003366 -0.00299993756904519 0.002781448380356957 
-0.0005106076604429574 -0.0005838036234640058 -4.840844412151994e-05 -0.0001354720674483493 0.001111048031184559 
0.007224975672070009 -0.002317900878380339 0.004395462748763935 -0.00286446529105769 0.001670400240056097 
0 0 0 0 0 
0 0 0 0 0 
0.002691138492156317 0.0002801955212287528 0.001052707191410179 -0.000857748177651767 -0.003375974118699459 
0 0 0 0 0 
0 0 0 0 0 
0 0 0 0 0 
0 0 0 0 0 
0 0 0 0 0 
0 0 0 0 0 
0 0 0 0 0 
0 0 0 0 0 
0 0 0 0 0 
0 0 0 0 0 
0 0 0 0 0 
0 0 0 0 0 
0 0 0 0 0 
0 0 0 0 0 
0 0 0 0 0 
0 0 0 0 0 
0 0 0 0 0 
0 0 0 0 0 
-0.001423271010248284 -9.68003627864886e-05 0.0005830974096081998 -0.0007806524275189007 0.002005819738671612 
0 0 0 0 0 
0 0 0 0 0 
0 0 0 0 0 
0 0 0 0 0 
0.0009588720236376041 -0.001646687019107007 0.002982358136387661 0.001852901995900359 -0.0151117952298386 
