solver_type L2R_L2LOSS_SVC_DUAL
nr_class 12
label 1 2 3 4 5 6 7 8 9 10 11 12
nr_feature 173
bias -1
w
0 0 0 0 0 0 0 0 0 0 0 0 
0 0 0 0 0 0 0 0 0 0 0 0 
0 0 0 0 0 0 0 0 0 0 0 0 
0 0 0 0 0 0 0 0 0 0 0 0 
-0.0007340135223002035 -0.0007862952017214093 0.004669228251316215 -0.0004836261541938347 0.002843951387992861 0.0002300229322187467 0.0008704331130474093 -0.001584716396524934 0.0017154890753475 -0.0001153406572196172 -4.030086570590003e-05 -4.021756263719017e-05 
0 0 0 0 0 0 0 0 0 0 0 0 
0 0 0 0 0 0 0 0 0 0 0 0 
0 0 0 0 0 0 0 0 0 0 0 0 
0 0 0 0 0 0 0 0 0 0 0 0 
0 0 0 0 0 0 0 0 0 0 0 0 
0.05693734097413426 0.030127564630647 0.08982718148483103 0.01964086037343011 0.03240540978848359 0.07937805588314177 -0.08069972211871664 0.02454149244409001 -0.1071024515539132 -0.01828104531783505 -0.07919901385673685 0.06402946302785151 
0 0 0 0 0 0 0 0 0 0 0 0 
0 0 0 0 0 0 0 0 0 0 0 0 
-0.03933200376212274 -0.006921725884470984 -0.02675019840874496 0.001646776755613297 0.01389973700534674 -0.02043917598602199 -0.006256787437208759 0.001825889954701719 0.123439841202167 0.08746383445342169 0.008825999434944498 -0.04435452139143311 
0 0 0 0 0 0 0 0 0 0 0 0 
0 0 0 0 0 0 0 0 0 0 0 0 
0 0 0 0 0 0 0 0 0 0 0 0 
0 0 0 0 0 0 0 0 0 0 0 0 
0 0 0 0 0 0 0 0 0 0 0 0 
0.07429434113901583 0.0708850595303504 0.0515752175467153 0.04158372616033129 0.03057272438268402 0.04883040664137426 0.0614998825730002 0.03506769690599941 0.001730737317368723 -0.1555466719274863 0.01269930502831758 0.1007079670565754 
0 0 0 0 0 0 0 0 0 0 0 0 
0 0 0 0 0 0 0 0 0 0 0 0 
0 0 0 0 0 0 0 0 0 0 0 0 
0 0 0 0 0 0 0 0 0 0 0 0 
-0.1092688994047817 -0.08184259537258994 -0.1018749806608092 -0.04713923297390061 0.01136819810121265 -0.09048308988137141 -0.01022246069930065 -0.004096358329516912 -0.07625246821238624 0.01603197383284512 0.01480556622166223 0.008795975501743287 
0 0 0 0 0 0 0 0 0 0 0 0 
0 0 0 0 0 0 0 0 0 0 0 0 
-0.0004268480869096163 0.0004685362343686334 -0.0003314944706838252 0.002563952633774071 -0.003249760876505795 0.0002494292046636009 0.001285563248453958 -0.003077538051819936 -0.002599622296621851 -0.004303735461153026 -0.004233290232642049 -0.001321356728833449 
0 0 0 0 0 0 0 0 0 0 0 0 
0.1293221495741531 0.1455225732664794 0.1204658482502003 0.08797029310211976 0.03413742963260191 0.1160565409920778 0.02742304632077118 0.03825055333463761 0.4277138197433485 -0.08953138819600266 0.03826334956430161 0.02159264502908718 
0 0 0 0 0 0 0 0 0 0 0 0 
-0.01841553990428659 -0.04938751447447213 0.01018001286478121 -0.0390401404619856 -0.03051924634995049 -0.02020107988496548 -0.02230212361595092 -0.01869761229178928 -0.2225728154698821 0.04149101578679299 -0.04494368764472066 -0.03554412609742937 
0 0 0 0 0 0 0 0 0 0 0 0 
0 0 0 0 0 0 0 0 0 0 0 0 
0 0 0 0 0 0 0 0 0 0 0 0 
0 0 0 0 0 0 0 0 0 0 0 0 
0 0 0 0 0 0 0 0 0 0 0 0 
0 0 0 0 0 0 0 0 0 0 0 0 
0 0 0 0 0 0 0 0 0 0 0 0 
-0.001422637546429925 -0.0007089915013663789 0.007660081088452464 -0.001458071804404524 0.0006634360729522629 -0.0009705397346208074 -0.001364253262316069 0.00173024636131977 -0.0004925476080552193 -0.01273234639586753 0.002633858838694561 -0.001839242950015101 
0 0 0 0 0 0 0 0 0 0 0 0 
0 0 0 0 0 0 0 0 0 0 0 0 
0 0 0 0 0 0 0 0 0 0 0 0 
-0.004408220260347313 0.01661026955629401 0.02745219347463147 0.009627702068164417 -0.005656105721587976 0.009768590315954517 0.01021583424043178 -0.009864902355499779 0.05218551033606083 -0.006861272848645195 0.0002700647667625322 0.004283645162944125 
0 0 0 0 0 0 0 0 0 0 0 0 
0 0 0 0 0 0 0 0 0 0 0 0 
0 0 0 0 0 0 0 0 0 0 0 0 
-0.08965844938493642 -0.07496261045842929 -0.103074138396209 -0.2084314589221123 -0.2544443024827637 -0.3087079678002859 -0.178286177057512 -0.4202948566086732 0.003404131849011891 0.01013804961642586 -0.3029885844428511 -0.09292108463715416 
0 0 0 0 0 0 0 0 0 0 0 0 
0 0 0 0 0 0 0 0 0 0 0 0 
0 0 0 0 0 0 0 0 0 0 0 0 
0 0 0 0 0 0 0 0 0 0 0 0 
0 0 0 0 0 0 0 0 0 0 0 0 
0 0 0 0 0 0 0 0 0 0 0 0 
-0.028783498041827 -0.1786192511762277 -0.005557101808427664 -0.1225397400782023 -0.07933260691903127 -0.1528083830938406 -0.0790818670130278 -0.06402481965691573 -0.1641215294963802 0.1737852318655429 -0.1337599442510346 -0.1199946429151998 
-0.01943257693989636 -0.01634256591787509 -0.005646828127167535 -0.01583880252580018 -0.008443732992513008 -0.01203345550344657 -0.01622844016067533 -0.007923570801829986 -0.01253185719644412 0.03810947390201298 -0.02237256458133965 -0.05434081483627377 
0 0 0 0 0 0 0 0 0 0 0 0 
0 0 0 0 0 0 0 0 0 0 0 0 
0 0 0 0 0 0 0 0 0 0 0 0 
0 0 0 0 0 0 0 0 0 0 0 0 
0 0 0 0 0 0 0 0 0 0 0 0 
0 0 0 0 0 0 0 0 0 0 0 0 
0 0 0 0 0 0 0 0 0 0 0 0 
0 0 0 0 0 0 0 0 0 0 0 0 
0 0 0 0 0 0 0 0 0 0 0 0 
0 0 0 0 0 0 0 0 0 0 0 0 
0 0 0 0 0 0 0 0 0 0 0 0 
0 0 0 0 0 0 0 0 0 0 0 0 
0 0 0 0 0 0 0 0 0 0 0 0 
0 0 0 0 0 0 0 0 0 0 0 0 
0 0 0 0 0 0 0 0 0 0 0 0 
0 0 0 0 0 0 0 0 0 0 0 0 
0 0 0 0 0 0 0 0 0 0 0 0 
0 0 0 0 0 0 0 0 0 0 0 0 
0 0 0 0 0 0 0 0 0 0 0 0 
0 0 0 0 0 0 0 0 0 0 0 0 
0 0 0 0 0 0 0 0 0 0 0 0 
0 0 0 0 0 0 0 0 0 0 0 0 
0 0 0 0 0 0 0 0 0 0 0 0 
0 0 0 0 0 0 0 0 0 0 0 0 
0 0 0 0 0 0 0 0 0 0 0 0 
0 0 0 0 0 0 0 0 0 0 0 0 
0 0 0 0 0 0 0 0 0 0 0 0 
0 0 0 0 0 0 0 0 0 0 0 0 
0 0 0 0 0 0 0 0 0 0 0 0 
0 0 0 0 0 0 0 0 0 0 0 0 
0 0 0 0 0 0 0 0 0 0 0 0 
0 0 0 0 0 0 0 0 0 0 0 0 
0 0 0 0 0 0 0 0 0 0 0 0 
0 0 0 0 0 0 0 0 0 0 0 0 
0 0 0 0 0 0 0 0 0 0 0 0 
0 0 0 0 0 0 0 0 0 0 0 0 
0 0 0 0 0 0 0 0 0 0 0 0 
0 0 0 0 0 0 0 0 0 0 0 0 
0 0 0 0 0 0 0 0 0 0 0 0 
0 0 0 0 0 0 0 0 0 0 0 0 
0 0 0 0 0 0 0 0 0 0 0 0 
0 0 0 0 0 0 0 0 0 0 0 0 
0 0 0 0 0 0 0 0 0 0 0 0 
0 0 0 0 0 0 0 0 0 0 0 0 
0 0 0 0 0 0 0 0 0 0 0 0 
0 0 0 0 0 0 0 0 0 0 0 0 
0 0 0 0 0 0 0 0 0 0 0 0 
0 0 0 0 0 0 0 0 0 0 0 0 
0 0 0 0 0 0 0 0 0 0 0 0 
0 0 0 0 0 0 0 0 0 0 0 0 
0 0 0 0 0 0 0 0 0 0 0 0 
0 0 0 0 0 0 0 0 0 0 0 0 
0 0 0 0 0 0 0 0 0 0 0 0 
0 0 0 0 0 0 0 0 0 0 0 0 
0 0 0 0 0 0 0 0 0 0 0 0 
0 0 0 0 0 0 0 0 0 0 0 0 
0 0 0 0 0 0 0 0 0 0 0 0 
0 0 0 0 0 0 0 0 0 0 0 0 
0 0 0 0 0 0 0 0 0 0 0 0 
0 0 0 0 0 0 0 0 0 0 0 0 
0 0 0 0 0 0 0 0 0 0 0 0 
0 0 0 0 0 0 0 0 0 0 0 0 
0 0 0 0 0 0 0 0 0 0 0 0 
0 0 0 0 0 0 0 0 0 0 0 0 
0 0 0 0 0 0 0 0 0 0 0 0 
0 0 0 0 0 0 0 0 0 0 0 0 
0 0 0 0 0 0 0 0 0 0 0 0 
0.0001820858441753187 -0.0006309536458335869 0.0116975643363132 -0.001128452538942685 0.003230996609224491 -0.0005054713470918784 -0.001554653945998337 0.001789945264851189 0.002389812306581299 -0.02994585246145648 0.0025714123879487 0.0009821091881151156 
0 0 0 0 0 0 0 0 0 0 0 0 
0 0 0 0 0 0 0 0 0 0 0 0 
0 0 0 0 0 0 0 0 0 0 0 0 
0 0 0 0 0 0 0 0 0 0 0 0 
0 0 0 0 0 0 0 0 0 0 0 0 
0 0 0 0 0 0 0 0 0 0 0 0 
0 0 0 0 0 0 0 0 0 0 0 0 
0 0 0 0 0 0 0 0 0 0 0 0 
0 0 0 0 0 0 0 0 0 0 0 0 
0 0 0 0 0 0 0 0 0 0 0 0 
0 0 0 0 0 0 0 0 0 0 0 0 
0 0 0 0 0 0 0 0 0 0 0 0 
0 0 0 0 0 0 0 0 0 0 0 0 
0 0 0 0 0 0 0 0 0 0 0 0 
0 0 0 0 0 0 0 0 0 0 0 0 
0 0 0 0 0 0 0 0 0 0 0 0 
0 0 0 0 0 0 0 0 0 0 0 0 
0 0 0 0 0 0 0 0 0 0 0 0 
0 0 0 0 0 0 0 0 0 0 0 0 
0 0 0 0 0 0 0 0 0 0 0 0 
0 0 0 0 0 0 0 0 0 0 0 0 
0 0 0 0 0 0 0 0 0 0 0 0 
0 0 0 0 0 0 0 0 0 0 0 0 
0 0 0 0 0 0 0 0 0 0 0 0 
0 0 0 0 0 0 0 0 0 0 0 0 
0 0 0 0 0 0 0 0 0 0 0 0 
0 0 0 0 0 0 0 0 0 0 0 0 
0 0 0 0 0 0 0 0 0 0 0 0 
0 0 0 0 0 0 0 0 0 0 0 0 
0 0 0 0 0 0 0 0 0 0 0 0 
0 0 0 0 0 0 0 0 0 0 0 0 
0 0 0 0 0 0 0 0 0 0 0 0 
0 0 0 0 0 0 0 0 0 0 0 0 
0 0 0 0 0 0 0 0 0 0 0 0 
0 0 0 0 0 0 0 0 0 0 0 0 
0 0 0 0 0 0 0 0 0 0 0 0 
0 0 0 0 0 0 0 0 0 0 0 0 
0 0 0 0 0 0 0 0 0 0 0 0 
0 0 0 0 0 0 0 0 0 0 0 0 
0 0 0 0 0 0 0 0 0 0 0 0 
0 0 0 0 0 0 0 0 0 0 0 0 
0 0 0 0 0 0 0 0 0 0 0 0 
0 0 0 0 0 0 0 0 0 0 0 0 
0 0 0 0 0 0 0 0 0 0 0 0 
0 0 0 0 0 0 0 0 0 0 0 0 
0 0 0 0 0 0 0 0 0 0 0 0 
0 0 0 0 0 0 0 0 0 0 0 0 
0 0 0 0 0 0 0 0 0 0 0 0 
0.001464693037032784 -0.0004894979923226199 0.001855812181513769 0.0006299277933420174 -0.0005386578381114941 0.0008223652781119773 0.001952640394363227 0.001477325425053906 0.002745725330207592 -0.004888491988571023 -8.519240912626048e-05 -0.001122924467499285 
